5 100
5 -0.040830758213996884 -0.012295768037438393 0.03688029758632183 0.053995979391038416 0.04481559097766876 0.008346767444163562 -0.029821542277932166 -0.05770476162433624 -0.08718657791614533 0.020347168296575548 0.053307588398456576 0.04281488917768002 -0.05707972254604101 -0.04010646995157004 -0.0420934887137264 0.12701319325715305 0.05909905284643173 -0.05500923991203308 0.08809691667556763 -0.01742678852751851 -0.08186682844534517 0.04430808499455452 0.054067228175699714 -0.038917309045791625 0.05914307618513703 -0.0615432433784008 0.01747263902798295 0.054168498143553734 0.007032067328691482 -0.03471490070223808 -0.002511798357591033 -0.036056551631190814 -0.04159533623605967 0.0060032779350876805 -0.01520185781409964 0.025278808176517488 -0.014728944475064055 -0.0015219934284687042 -0.0020794779062271117 -0.09722338244318962 -0.0287540796212852 -0.009016312286257743 -0.0014062643051147461 0.07557060513645411 0.05980985909700394 0.021889856830239297 -0.0018891768530011177 -0.037077297270298 0.0000938229262828827 0.0009001024067401886 -0.03795590288937092 0.006442702747881413 -0.02929486334323883 0.03788818344473839 -0.02621177490800619 -0.023540228605270386 -0.009501161437947303 0.010838145017623901 -0.0788255512714386 -0.06560771018266678 -0.037201911024749276 -0.041958555579185486 0.03025933988392353 0.023421061132103203 0.049523265659809114 0.030696441722102463 0.05682555511593819 0.03351611290127039 0.08173401709645986 0.06140798688866198 0.012972677312791347 0.008150105737149716 -0.01884262040257454 0.000290173152461648 0.03347078301012516 -0.06201096810400486 -0.04097990244626999 -0.050727613270282745 -0.008420605212450027 -0.09598094187676906 0.03453431278467178 0.09653089307248593 -0.07391419727355242 -0.06629803627729416 0.07868636474013328 0.103652611002326 0.013769211620092392 -0.004172011464834213 0.04609324894845486 -0.01108154165558517 -0.049190396419726314 0.056202394829597324 -0.09412822797894478 0.02358260713517666 0.08826880324631929 0.05294150731060654 -0.04478953704237938 -0.008822049340233206 -0.05528001226484776 -0.057040107995271684 
9 -0.07800205051898956 -0.06202938656012217 0.10405892506241798 0.04904438368976116 -0.005943752825260162 -0.03873278604199489 0.0291424257059892 -0.12532787770032883 -0.08786864206194878 0.05780219535032908 0.07678386693199475 -0.01727430894970894 -0.03430488146841526 -0.043109066784381866 -0.04719202018653353 0.14415033161640167 0.0745628575483958 -0.07498268534739812 0.13243883351484934 -0.012968318614487847 -0.09677755863716204 0.09005850305159886 0.0377984835455815 0.021803160508473713 -0.0028253362203637757 -0.019970955948034923 0.0864073106398185 0.047926473120848335 -0.03704042236010233 0.006321661174297333 -0.014609551833321651 -0.050903389763940744 -0.05117217389245828 -0.01861690419415633 -0.01842916481352101 0.03703232233723005 -0.03986322621737296 -0.08146455138921738 -0.04810618112484614 -0.08869734406471252 -0.02691760907570521 0.028656916071971256 -0.026158009345332783 0.054267133896549545 0.05056121697028478 0.04039562617739042 -0.019528575862447422 0.008293862144152323 -0.001039716104666392 -0.006010862688223521 -0.008027301480372747 -0.028383560478687286 -0.06312199806173642 0.01565105716387431 -0.00033490918576717377 -0.0013500116765499115 -0.045172634262902044 -0.02421271800994873 -0.034478468199570976 -0.11184506739179294 0.0016092024743556976 -0.05597902958591779 0.05233358715971311 -0.019442806486040354 0.1112990751862526 0.07509379748565455 0.050917379558086395 0.018060756847262383 0.061180030927062035 0.0395530730796357 -0.046959877014160156 0.054600720604260765 -0.05825777600208918 -0.06448428596680363 0.06293344125151634 -0.10888480395078659 -0.07030359903971355 -0.054389787216981254 -0.02693271388610204 -0.1343234380086263 0.05813313523928324 0.1117488294839859 -0.07006440001229446 -0.05159007509549459 0.10532032201687495 0.10432570800185204 0.04010242968797684 -0.032107179363568626 0.04812129338582357 -0.09264909429475665 -0.07679345831274986 0.06299479589021455 -0.05187928428252538 0.04546958456436793 0.08337745194633801 0.0052341558039188385 -0.04626613607009252 -0.009508310661961636 -0.028910526384909947 -0.008526240785916647 
12 -0.07547258337338765 -0.07941461851199468 0.006772155563036601 0.06986573276420434 0.03726034611463547 0.015092134475708008 -0.07543151639401913 0.04291623830795288 -0.08466063191493352 0.04056275635957718 0.07757828881343205 0.08283340558409691 0.02400833119948705 0.04190804188450178 -0.06862343847751617 0.16151088972886404 -0.06630530208349228 0.019416525959968567 0.13855021198590597 0.10467725301471849 -0.05536804348230362 0.08148940652608871 0.11399994293848674 -0.05225043992201487 0.12229261547327042 -0.15233562886714935 0.015204152713219324 0.011597902824481329 0.056115751465161644 -0.09140815089146297 -0.032088730639467634 -0.06202537566423416 -0.023404366026322048 0.048809697230656944 -0.03544364594078312 -0.10442156593004863 -0.03177346310500676 0.04670858383178711 -0.03414538502693176 0.008398175239562988 -0.13209725419680277 -0.0338678111632665 0.027829260875781376 -0.037103949735562004 0.03944592426220576 -0.04658650358517965 0.04765178759892782 -0.066168329368035 0.053251796712478004 0.1231136570374171 -0.08373223741849263 0.08981743454933167 -0.00621837501724561 0.1393278737862905 -0.07551832559208076 0.02196438858906428 0.028039276599884033 0.06591122349103291 0.001149296760559082 -0.06320613871018092 -0.026012560973564785 -0.05225848903258642 0.0691200519601504 0.034756116569042206 -0.0521521990497907 0.013695632417996725 0.10799004634221394 0.04017911603053411 0.13559140264987946 0.1307474672794342 -0.02298071359594663 -0.1386976639429728 0.05686481793721517 0.045567835215479136 -0.051986644665400185 0.04755250612894694 -0.14025971293449402 -0.09553056955337524 0.13379412392775217 0.0250303049882253 -0.022345763941605885 0.050622028609116874 -0.12035375833511353 -0.15194732944170633 0.06356916824976604 0.13528315474589667 0.13635086516539255 0.0850236564874649 0.06869640201330185 0.006535659233729045 -0.04298387700691819 0.07945561408996582 -0.0875245804588 0.0393021876613299 0.0259347806374232 0.01892683670545618 0.04118289425969124 0.01813203391308586 -0.1086981159945329 -0.042158144215742745 
13 -0.09222838418050246 0.004414914006536657 0.0034555528651584277 0.057136572897434235 0.04398990354754708 0.028799619017676872 -0.02183338220823895 -0.02438436990434473 -0.06988714228976857 0.08423634245991707 0.06135130978443406 0.02697540142319419 -0.020545284179123966 -0.07349987497383897 -0.01560015891763297 0.09908444459804079 0.11145770007913763 0.040360873395746406 0.08386145667596297 0.04142029927408492 -0.028530564159154892 0.06695844233036041 0.08484903553670103 0.005222240632230585 0.05174413848329674 0.020505838096141815 0.02674223059280352 0.0071596705608747225 -0.008606328544291582 0.015892397950996052 0.01865296404470097 -0.034028149416289205 -0.014665175313976679 0.045742600140246475 -0.07035061717033386 -0.021109357306903057 -0.002010906623168425 0.008020724762569775 0.008042308417233553 -0.056847292591225014 -0.014081230260093103 -0.0026141831820661373 0.02068304643034935 0.04571775076064197 0.11766820739616048 -0.01355203478173776 0.03656982427293604 0.004166038876230066 -0.0030898207967931576 -0.04155163128267635 -0.03199989687312733 -0.01608463351360776 -0.03438256697898561 0.031260159543969414 0.02615995772860267 -0.0807782607999715 0.03920135507360101 -0.00991884483532472 0.0028780996799468994 -0.015313353728164326 0.01475230638276447 -0.03803337619385936 -0.02069372074170546 0.06211245817724954 0.02534395388581536 -0.035618050108579075 0.10920681330290707 0.0039376105097207155 0.09410950778560205 0.04714666899632324 0.012679923325777054 0.054272248071025715 0.05988922308791767 0.0015344795855608854 0.016751044514504345 -0.052008232779123566 -0.06340824473987926 0.04138307273387909 -0.060278857296163384 -0.049249036237597466 0.06457354297692125 0.09443064779043198 -0.01824111034247008 0.03579561818729748 0.10484476014971733 0.11744783141396263 -0.0018696967851031911 -0.060348883271217346 0.0479638014327396 -0.005239673382179303 -0.012015386696227572 0.034618920075114475 -0.06438301503658295 -0.032051536847244606 0.10671344094655731 -0.013928018129346046 -0.04026267813010649 -0.026003969663923435 -0.07687589119781148 -0.01942859793251211 
14 0.0018139382203420003 -0.1502048671245575 0.13817357271909714 0.022374073664347332 -0.06866301596164703 -0.06567636877298355 0.011207633962233862 -0.10717294365167618 -0.1261343459288279 -0.011142770449320475 0.14596126476923624 -0.08537542074918747 -0.051357231413324676 0.027437431116898853 -0.03722700026507179 0.14285422364870706 0.018289958437283833 -0.08235646039247513 0.10874702036380768 0.03401149918014804 -0.08237519642959039 0.07307957609494527 0.061733633279800415 0.04279205699761709 0.022351109733184178 -0.0366200457016627 0.06925160561998685 0.025345034897327423 -0.11892761786778767 0.05807685852050781 0.008782172886033853 -0.07842482874790828 -0.07290486805140972 -0.11564936675131321 -0.04318694716009001 -0.012737446775039038 -0.004808639603046079 -0.145824005206426 -0.15331494063138962 -0.12215905512372653 -0.10956307003895442 0.007803959151109059 0.041054246947169304 0.02009896623591582 -0.039314125974973045 0.13065347944696745 -0.039751999701062836 0.011913098394870758 -0.044857051223516464 0.09200139592091243 -0.09073753034075101 -0.004410346349080403 -0.0645518700281779 0.07516568154096603 0.05015229061245918 0.08209846292932828 -0.06467730555838595 -0.1064592848221461 -0.05374522507190704 -0.10106791680057843 -0.03945313145716985 -0.09853563706080119 0.04571312045057615 -0.041611007026707135 0.10236500451962154 0.08337342653733988 0.08128944039344788 0.059027004366119705 0.08042319864034653 0.05195825376237432 -0.12544033428033194 -0.03024633228778839 -0.0716143250465393 -0.03738169651478529 0.12855593611796698 -0.10959010322888692 -0.11934463679790497 -0.058839855094750725 0.0366348996758461 -0.12556891640027365 0.02679027368625005 0.08707808454831441 -0.09779070255657037 -0.051070804397265114 0.08808848758538564 0.12658180793126425 0.11749419073263805 -0.00029616057872772217 0.09824859350919724 -0.12700270116329193 -0.09779597073793411 0.10801767557859421 -0.05207513024409612 0.022770248353481293 0.04645289729038874 -0.011360940833886465 -0.04302709301312765 -0.010335872881114483 -0.05732749650875727 0.009078919887542725 