22 100
</s> 0.004003 0.004419 -0.003830 -0.003278 0.001367 0.003021 0.000941 0.000211 -0.003604 0.002218 -0.004356 0.001250 -0.000751 -0.000957 -0.003316 -0.001882 0.002579 0.003025 0.002969 0.001597 0.001545 -0.003803 -0.004096 0.004970 0.003801 0.003090 -0.000604 0.004016 -0.000495 0.000735 -0.000149 -0.002983 0.001312 -0.001337 -0.003825 0.004754 0.004379 -0.001095 -0.000226 0.000509 -0.003638 -0.004007 0.004555 0.000063 -0.002582 -0.003042 -0.003076 0.001697 0.000201 0.001331 -0.004214 -0.003808 -0.000130 0.001144 0.002550 -0.003170 0.004080 0.000927 0.001120 -0.000608 0.002986 -0.002288 -0.002097 0.002158 -0.000753 0.001031 0.001805 -0.004089 -0.001983 0.002914 0.004232 0.003932 -0.003047 -0.002108 -0.000909 0.002001 -0.003788 0.002998 0.002788 -0.001599 -0.001552 -0.002238 0.004229 0.003912 -0.001180 0.004215 0.004820 0.001815 0.004983 -0.003111 -0.001532 -0.002107 -0.002907 0.002815 0.001579 0.000425 -0.002194 0.001524 0.003059 0.000194 
the 0.002280 -0.004953 0.004315 0.000480 -0.001831 -0.002083 -0.000748 -0.002935 -0.004370 -0.002837 0.004277 -0.001770 -0.002679 0.002317 -0.001704 0.004757 -0.001605 -0.004589 0.002716 -0.000074 -0.003489 0.000976 0.001442 -0.000481 0.001824 -0.003958 0.000881 0.001817 -0.003009 0.000142 -0.000061 -0.002399 -0.002833 -0.004694 0.000023 0.000153 0.000010 -0.003934 -0.004962 -0.004747 -0.004326 -0.000547 0.001391 0.001184 -0.003182 0.004998 -0.002011 -0.001274 -0.001404 0.004733 -0.003764 0.001161 -0.001335 0.003188 0.000041 0.004270 -0.002819 -0.002605 -0.004192 -0.003667 -0.003199 -0.003115 0.002444 -0.001867 0.002680 0.003690 0.001356 0.002951 0.002476 0.002341 -0.003551 -0.003433 -0.003657 -0.000132 0.004131 -0.002737 -0.003060 -0.004196 0.003306 -0.004179 -0.000579 0.002179 -0.004618 -0.004479 0.001443 0.003525 0.004264 0.002146 0.003162 -0.003128 -0.003640 0.003975 -0.002765 0.001753 0.000574 0.001790 -0.001182 0.000199 -0.001686 -0.001127 
of -0.004434 -0.003260 0.003485 0.001005 -0.002363 -0.001592 0.002495 -0.003533 -0.002313 0.004734 0.004248 -0.003959 0.000871 -0.002250 0.000152 0.003007 0.004846 0.001987 0.004113 0.003147 -0.000231 0.004475 0.002536 0.004741 -0.001705 0.004747 0.004329 -0.001427 -0.004420 0.004833 0.000897 -0.002079 -0.000718 -0.000736 -0.003853 -0.001431 -0.000444 -0.004927 -0.003516 -0.001203 -0.000941 0.001790 0.000816 -0.000614 0.002946 0.001446 0.000548 0.003617 -0.001125 -0.001427 -0.000414 -0.002728 -0.003000 0.000202 0.004338 -0.001367 -0.000021 -0.004135 0.003709 -0.001520 0.002968 -0.002409 -0.000895 0.000094 0.003623 -0.000086 0.004433 -0.000743 0.002100 -0.000137 -0.003902 0.004251 0.001056 -0.003029 0.003008 -0.004145 -0.004354 0.003268 -0.003432 -0.002648 0.003528 0.003285 0.000685 0.004523 0.004857 0.004055 0.001765 -0.004350 0.002289 -0.004892 -0.001286 0.001512 0.000981 -0.001525 0.002938 -0.004608 -0.001411 -0.001312 -0.001656 0.003071 
to -0.004732 0.002782 0.001340 0.002833 0.003681 0.000274 0.000824 -0.004553 -0.001030 0.003216 -0.001789 0.004214 -0.001195 -0.003877 -0.002593 0.004901 0.003339 -0.003973 0.004820 -0.004210 -0.004778 0.002475 -0.000659 -0.002331 -0.000381 -0.002520 0.002395 0.003816 0.004182 -0.004412 -0.002123 0.000006 -0.000939 0.003817 0.002203 0.004536 -0.003078 0.001709 0.004272 -0.001831 0.002921 0.001284 -0.004519 0.004200 0.004710 -0.002915 -0.000244 -0.001600 0.002448 -0.003866 0.003499 -0.000942 -0.001215 -0.002029 -0.004402 -0.003049 -0.001120 0.004620 -0.002525 -0.004639 0.000396 0.000609 0.003042 0.000071 0.003486 0.002984 -0.001310 -0.000636 0.000800 0.001264 0.003338 0.004016 -0.002503 -0.002517 -0.001624 -0.002695 0.001240 -0.003834 -0.002270 -0.004976 0.002175 0.004366 -0.002205 -0.004554 0.002966 0.001591 -0.002526 -0.000642 -0.001235 -0.000121 -0.001815 0.000037 -0.002764 0.003762 0.003832 0.003260 -0.001477 0.000275 0.000808 -0.002683 
and -0.004706 -0.001057 -0.001972 0.002984 0.002697 0.001803 -0.003100 0.003544 -0.001609 0.003383 0.001330 0.004777 0.002532 0.000715 -0.002278 0.004966 -0.002223 0.003331 0.004983 0.004891 -0.000718 0.003260 0.004520 -0.002167 0.004702 -0.004964 0.000238 -0.000425 0.004195 -0.004312 -0.001455 -0.001604 0.000416 0.004749 -0.001655 -0.004921 -0.001478 0.004249 0.001046 0.002904 -0.003831 -0.001280 0.000553 -0.002347 0.003514 -0.004807 0.003274 -0.002392 0.003212 0.003199 -0.001887 0.003548 0.000419 0.004769 -0.003522 -0.001244 0.002793 0.004435 0.002274 -0.000987 0.000489 -0.000772 0.001909 0.002600 -0.003837 -0.001320 0.004287 0.000299 0.004973 0.004820 0.000816 -0.004610 0.004573 0.002182 -0.004598 0.003654 -0.004880 -0.002205 0.004450 0.003374 -0.000729 0.001192 -0.003132 -0.004670 0.002182 0.004403 0.004061 0.002804 0.001509 0.001960 -0.000064 0.001577 -0.002592 0.000893 0.000898 -0.000071 0.002535 0.000735 -0.004145 -0.001357 
in 0.002048 0.003517 -0.003788 0.001000 0.003601 0.003769 -0.004124 0.002780 -0.002648 -0.001477 0.001252 0.002266 -0.004044 -0.002690 0.001248 0.000238 0.004570 0.002162 -0.002731 -0.000023 0.000850 -0.002391 0.003222 -0.002735 0.004952 0.000683 -0.004488 0.000383 -0.000468 0.000916 0.003047 0.000113 -0.000252 0.000338 -0.002768 -0.000265 0.003254 0.003481 0.001974 -0.004969 0.000208 -0.002625 0.003679 0.004282 0.003265 0.001553 0.001253 -0.001730 -0.002418 -0.001954 -0.003898 0.000275 0.000815 0.001384 0.002133 -0.003921 0.003121 -0.001402 -0.004248 0.003963 -0.002845 -0.000778 -0.004135 0.004708 -0.001927 -0.004716 0.003878 0.001596 0.003533 0.001318 0.003698 0.000407 0.003690 0.004353 0.001731 -0.000576 0.001200 0.003921 -0.003117 -0.000573 0.001220 0.002054 0.000560 0.003698 0.001406 0.003283 -0.003331 -0.001983 0.001915 0.004639 0.001616 0.000667 -0.004598 -0.004348 0.004307 0.002428 -0.002977 -0.001644 -0.003852 -0.003419 
a 0.004436 -0.002720 0.001046 -0.001092 -0.002204 -0.000545 -0.004593 -0.002309 -0.000240 0.004415 -0.001862 0.003709 -0.004517 0.004188 0.000643 0.000246 0.002622 0.003307 -0.003170 0.003081 0.001334 -0.001196 0.003105 0.000496 0.004274 0.000208 -0.001626 0.003272 -0.003401 -0.000448 0.004044 0.004691 -0.004036 0.001366 0.004020 0.000534 0.002527 0.002683 0.004709 -0.000918 -0.001056 0.003033 -0.004983 0.001116 0.000370 0.004447 -0.003649 -0.000082 0.004463 0.001457 0.002616 0.001269 0.001378 0.001094 0.000219 0.003450 0.003771 0.002889 -0.001933 -0.002758 -0.003201 -0.001127 -0.002436 -0.004073 -0.001882 0.003578 0.002619 -0.004715 -0.002116 0.004035 -0.000364 0.003599 -0.001246 -0.000224 -0.002478 0.001649 -0.004117 0.002831 -0.002316 0.002716 -0.003071 -0.002269 0.004027 0.002583 0.002047 0.001509 0.002959 -0.000471 0.003893 0.003694 0.003384 0.004337 -0.002376 -0.003681 -0.003290 0.000287 0.000896 0.003915 -0.003158 0.003161 
that 0.003865 0.003513 0.000188 0.001240 -0.000812 0.004644 -0.004348 -0.004694 0.002021 -0.000661 0.004642 -0.001361 0.000020 0.002131 0.001064 -0.002979 0.003340 0.000049 0.001323 -0.001267 0.004640 0.002625 0.004326 0.004556 -0.000926 0.001891 0.001480 -0.002228 0.004299 0.002377 -0.003309 0.004162 0.000472 0.001116 -0.003636 0.002007 0.000248 -0.002363 -0.000593 0.002088 -0.001216 0.003973 -0.002775 -0.002313 0.003735 0.004655 0.003725 0.004585 -0.004741 -0.003286 -0.004688 0.001062 -0.003988 -0.000319 0.000894 -0.002099 0.001149 -0.004413 0.001876 -0.001617 -0.001672 -0.001036 0.002165 -0.001712 -0.002297 -0.003157 -0.001834 -0.004101 0.001932 -0.001245 -0.001213 0.001995 -0.003829 -0.003268 -0.004567 -0.000140 -0.001924 -0.004696 0.002011 -0.004727 -0.002197 0.001504 0.004926 -0.003484 -0.001991 0.004861 0.003086 0.004371 0.003849 -0.002592 -0.002104 0.002118 0.002981 0.003676 0.003263 -0.004461 -0.004440 0.000696 -0.004407 0.002915 
i 0.004242 -0.002001 0.003792 -0.004972 0.004184 -0.002384 -0.000734 -0.004842 0.003042 0.004079 -0.004078 -0.000914 0.000972 0.004419 0.000166 -0.004905 0.000631 -0.001833 0.000904 0.003966 -0.002825 -0.002645 -0.000458 -0.001022 -0.001741 -0.003487 -0.000013 -0.004085 0.004041 0.002673 -0.001355 0.003057 -0.002823 -0.004633 0.004422 0.001185 0.002822 -0.003375 -0.001276 0.003580 -0.001367 0.000978 -0.004542 -0.003975 0.004766 -0.004541 0.001030 -0.003201 0.003878 -0.000402 0.004346 -0.003315 0.001125 -0.004574 -0.003188 -0.001036 0.004163 -0.002525 0.002336 -0.000584 0.003148 0.002776 -0.002679 -0.003677 0.000736 0.000860 0.000677 0.000467 0.002084 0.003758 0.003807 -0.004872 0.004849 -0.003997 0.000619 -0.003912 -0.000815 0.004624 -0.002481 0.001629 -0.002250 -0.000847 0.003413 0.002530 -0.004300 0.001622 -0.000292 0.002074 0.000691 -0.003438 0.000309 -0.003958 0.002879 0.001003 0.001623 0.002715 0.004921 0.004478 0.002556 0.002874 
census 0.001972 -0.000983 0.004515 -0.000199 0.001689 -0.000848 0.001405 -0.000723 0.004229 0.001914 -0.000367 -0.000417 0.002247 -0.003166 -0.001894 0.001500 0.000900 -0.004057 -0.001772 -0.001691 -0.002156 0.003774 0.003908 -0.004207 0.003235 -0.002644 0.001550 0.002232 -0.000270 -0.003779 0.000061 -0.001593 0.002485 0.002401 0.000848 -0.002401 -0.000845 0.000426 -0.002184 -0.004410 -0.000102 -0.002671 -0.002627 0.000662 -0.002631 0.002640 -0.001577 0.003595 -0.003275 -0.001610 0.002374 -0.002330 -0.004377 -0.000889 0.003131 -0.001331 0.004217 0.001833 -0.002898 0.004873 -0.004835 -0.003911 0.003191 -0.002936 0.003622 0.003910 0.002806 -0.001478 -0.002754 -0.000174 -0.000147 -0.004971 -0.003808 0.000869 0.000737 0.004866 0.003116 -0.003430 0.004366 -0.001186 0.003176 -0.001039 0.002144 0.000155 0.004026 0.002572 -0.002020 0.004670 -0.004177 0.004436 -0.001721 0.000640 0.001224 0.004082 0.001946 -0.001154 -0.004615 0.003544 0.000389 0.002570 
statistics -0.004038 -0.002650 -0.002486 -0.002408 0.003111 0.002534 -0.000274 0.002195 -0.000511 -0.001374 -0.004067 -0.002841 0.000251 -0.002343 -0.002460 -0.004234 0.003054 0.004159 -0.001546 0.003796 -0.001945 -0.004837 -0.004920 -0.000469 -0.002091 0.000201 -0.003674 0.003753 -0.002227 0.001302 0.003597 -0.000257 -0.004697 0.003000 0.000800 0.003281 0.000655 0.002324 0.004341 0.002649 -0.003514 -0.001193 0.003125 -0.001371 -0.002049 0.004479 -0.001440 0.004501 0.002708 0.003871 0.004552 -0.003953 0.000911 0.004016 -0.002493 0.001548 -0.004781 0.004444 -0.003669 0.001785 0.000786 -0.002814 0.002430 0.000040 -0.004731 -0.003226 -0.000289 0.002094 -0.001176 0.000239 0.004580 -0.003772 0.004108 -0.002888 -0.004057 0.003223 -0.003724 -0.000575 -0.004794 -0.003639 0.002986 0.001708 -0.003724 0.001423 0.004393 0.000993 -0.004441 -0.003310 0.003153 -0.003188 0.001961 0.002943 0.004423 0.001195 -0.003112 0.003463 -0.004141 -0.001326 0.004247 0.004033 
are -0.002382 -0.003721 0.000444 0.002932 0.002355 0.003543 0.004385 0.000943 -0.004774 0.002496 -0.002523 0.001347 0.003889 -0.002330 0.003625 -0.000076 -0.001501 -0.003904 -0.000764 0.004956 0.001713 -0.002695 0.003216 -0.002775 -0.001314 0.003329 -0.003029 0.000011 -0.002925 -0.001302 0.004408 -0.000904 -0.002963 0.000444 0.001933 0.002761 0.001227 -0.001901 -0.001548 0.001788 0.004802 0.003692 -0.004628 -0.000543 -0.004583 0.001757 -0.003402 0.001550 0.003231 -0.000676 -0.001463 -0.003652 0.000897 -0.004077 0.000096 0.004632 0.003574 0.003587 0.002679 -0.000316 -0.001084 -0.003153 0.000194 -0.002715 -0.002919 0.002734 -0.000952 -0.004285 0.000724 0.000779 -0.001855 -0.004242 -0.004998 0.003014 -0.001107 0.000692 -0.002429 0.003969 -0.004803 -0.003699 -0.001413 0.000676 0.003464 0.000864 0.000707 0.002666 0.002600 -0.004836 -0.000914 0.001971 0.004012 0.002482 0.001382 0.003122 0.001606 -0.001402 -0.002250 0.003149 0.001787 0.001795 
some 0.000846 0.001585 0.003462 0.002852 -0.004173 0.000460 -0.001962 -0.004947 0.000349 0.004306 -0.000580 0.004177 0.004568 0.000154 0.004016 -0.001494 0.001141 -0.002465 0.000730 -0.001178 -0.004776 -0.001520 0.000970 -0.001595 0.004473 -0.002479 -0.001358 0.003037 -0.000956 0.001689 0.000151 0.000999 0.001593 0.000516 0.004405 0.003072 -0.002723 -0.003969 0.002809 0.002538 0.003752 0.002768 -0.000731 -0.004822 0.001175 -0.002244 0.000193 -0.000727 0.002201 0.000528 0.004485 -0.004396 0.001987 0.003114 0.003553 -0.002547 -0.001812 0.000046 0.001303 0.000600 0.000963 -0.001646 0.004140 0.003328 0.002965 -0.002429 0.000972 -0.003583 -0.000648 -0.000272 0.003204 0.003148 -0.002219 -0.000645 0.004743 -0.000696 -0.001594 0.003484 0.001994 0.003164 0.003885 0.001646 0.003865 -0.004489 -0.000626 -0.004127 0.001761 -0.000375 0.002529 0.000695 -0.000411 0.001289 0.003506 0.003144 0.003755 -0.001218 0.004962 0.002752 0.003164 0.002887 
learning 0.002053 0.001549 -0.000775 -0.003116 0.002434 0.004067 -0.004159 -0.003445 -0.003737 -0.002664 -0.000579 0.000181 -0.003805 0.000889 -0.001130 -0.001457 -0.002613 -0.003244 -0.004406 0.004923 -0.002505 -0.000531 0.003500 -0.004898 -0.003325 -0.003941 -0.001006 -0.002639 -0.002416 -0.003942 0.000982 0.002481 -0.004622 0.001495 0.000870 0.003744 -0.002288 -0.003096 0.002565 -0.003069 0.004744 -0.000686 0.002473 0.000322 -0.000870 -0.001743 -0.000500 0.004700 -0.003975 -0.004235 -0.004948 0.003346 0.003086 -0.003631 0.003036 0.002041 0.000469 -0.002901 -0.000142 -0.000935 0.000831 -0.002512 0.004424 -0.004799 -0.000672 -0.000434 -0.001859 0.003729 0.003616 -0.002135 0.004914 0.000432 0.003851 -0.000584 0.001150 0.003589 0.002689 0.003750 -0.004245 0.003983 -0.004713 0.002899 0.000135 0.004894 -0.000698 0.001393 -0.001803 0.002104 0.004888 -0.003736 -0.003653 0.003894 0.004703 -0.002956 0.003492 0.001046 0.003903 -0.004237 0.001036 -0.003160 
there 0.000144 -0.003048 0.002887 -0.002942 0.003582 -0.002356 -0.004549 -0.000019 -0.003126 -0.002631 -0.002365 -0.003610 -0.004825 -0.001842 0.000843 -0.000433 -0.003857 0.004543 -0.001017 -0.004707 -0.000068 0.003555 -0.001538 0.001848 -0.000800 0.004725 -0.001816 0.000015 -0.000897 0.000084 -0.000443 0.003075 -0.002703 0.004164 -0.003514 -0.003191 0.003939 0.003996 -0.004622 -0.000503 0.001683 -0.000888 -0.004861 0.001922 -0.004312 0.001542 -0.002824 -0.002635 0.003608 -0.004183 -0.004605 0.001606 -0.004399 -0.001030 -0.003799 0.002927 0.004323 0.000530 -0.001499 0.002110 0.004929 0.002530 0.003702 0.002435 -0.004924 -0.000499 -0.004290 -0.000315 0.004920 -0.001526 0.000930 0.002139 -0.002882 -0.001020 -0.001731 0.000579 -0.003174 0.003050 -0.000866 -0.001712 0.001699 -0.004783 -0.002569 0.001044 0.001895 0.002510 -0.000435 -0.002868 0.000070 0.004461 0.004444 -0.002670 0.001379 0.003102 0.003473 0.004921 0.003479 0.002963 0.000558 -0.004314 
is -0.003474 0.001077 0.002107 -0.002095 0.003177 -0.003027 -0.002976 0.002362 -0.001412 0.002684 -0.003283 0.002335 0.000415 0.002741 -0.004908 0.003608 -0.001186 0.004175 -0.001446 0.004461 -0.003558 -0.003483 -0.003989 -0.004325 -0.001546 0.001798 -0.001132 0.000531 0.002507 0.004550 0.001032 0.004812 -0.001242 0.001804 -0.001092 -0.003203 -0.000138 0.003091 0.001404 -0.002731 0.000976 0.000443 -0.000075 -0.000492 -0.000244 -0.001610 -0.001622 -0.000704 -0.003642 0.003965 0.003169 0.004915 0.003439 -0.003303 0.003203 -0.002856 -0.003846 -0.001381 -0.000111 -0.000733 0.002161 0.004262 -0.002870 -0.002937 0.001614 0.000657 0.001335 -0.001186 -0.002828 -0.002666 0.001409 -0.004699 0.003989 -0.003673 -0.001242 -0.000194 -0.000278 0.002165 -0.002711 -0.001890 0.004527 0.001880 0.003408 -0.001506 0.001061 -0.004997 -0.003979 0.001739 0.004479 0.003566 -0.003466 0.001127 0.002439 0.002099 -0.001146 0.002439 -0.004904 -0.002366 -0.000613 0.003955 
for -0.004894 -0.000297 -0.002961 -0.003542 -0.002374 0.000336 0.003216 0.003229 0.000312 0.004064 0.001825 0.000048 0.003321 -0.002080 -0.000728 -0.004802 -0.000692 0.001434 0.004463 -0.000541 0.003430 -0.003363 -0.001195 -0.003888 0.003342 -0.001939 -0.003797 0.000939 -0.000798 0.002737 0.003064 0.002222 0.003666 0.000196 -0.001706 0.000741 0.001889 0.002469 0.003299 -0.000223 0.001528 0.004089 0.001986 -0.004888 0.002740 0.002085 0.000761 -0.004973 -0.001820 -0.004011 -0.001469 0.000303 0.003005 -0.002167 -0.003300 0.004223 0.004871 0.002148 -0.000824 0.002565 0.003934 -0.004036 0.002365 0.003613 0.002850 -0.001186 -0.004826 -0.001852 -0.003223 0.002728 -0.000993 -0.000550 0.003369 0.002238 -0.002227 0.003300 0.002784 0.004375 -0.002124 -0.002019 -0.002323 -0.001330 -0.001777 0.004273 0.003205 -0.002846 0.000221 -0.004542 -0.002976 0.004360 -0.002225 -0.002684 -0.000710 -0.002683 -0.002708 -0.001870 0.002660 -0.004443 -0.002321 -0.001320 
what 0.002289 0.001112 0.000340 0.002247 -0.004165 -0.001488 -0.000816 0.004614 0.003453 0.004790 0.000615 0.004060 -0.002201 -0.000524 0.003540 0.001368 0.004030 0.004601 -0.000634 -0.000182 -0.000198 0.004697 0.001999 -0.004808 -0.004728 -0.003206 -0.002156 -0.004228 0.003094 0.000425 -0.004192 0.002337 -0.001573 -0.002379 -0.002702 -0.001830 -0.001074 0.002912 -0.003780 -0.000948 0.004747 0.003330 -0.001021 0.003264 -0.001454 -0.001594 0.004483 0.001588 -0.004520 0.000172 0.004137 -0.002696 0.003206 0.003158 0.001847 -0.003807 0.001878 0.004397 0.004021 -0.003462 0.004154 0.003418 -0.000437 -0.000881 -0.004810 0.002254 -0.000119 -0.002782 0.002642 -0.004564 -0.001119 -0.003384 -0.003334 -0.000005 0.002968 -0.004407 -0.000082 -0.004538 0.001050 0.004932 -0.002444 0.003868 0.004532 -0.002086 -0.002766 -0.000255 -0.002679 0.000319 -0.000891 0.000124 -0.004178 0.000430 -0.004161 0.004537 -0.001057 -0.000973 0.002578 -0.004987 -0.001911 -0.000609 
machine -0.003018 -0.003914 -0.002833 -0.002696 -0.000790 0.004785 0.002583 0.001048 0.001915 0.000643 0.003242 0.001402 0.000256 -0.004310 0.000553 0.001649 0.001887 0.004457 -0.001581 -0.002430 -0.003034 0.003977 0.003249 -0.002554 -0.001852 0.003780 0.003948 0.002059 0.000590 -0.004103 0.001922 0.004689 0.001948 0.004860 0.001078 0.001118 0.002379 -0.002300 -0.002178 -0.000373 0.004537 0.003948 0.001060 0.000997 0.003581 -0.004364 0.002198 -0.001490 -0.002834 -0.002706 -0.004857 -0.002054 -0.004553 -0.004046 -0.003699 -0.002412 0.001083 0.001148 0.004578 -0.001784 -0.000772 0.004906 0.001380 0.003112 -0.002461 0.001759 0.000614 -0.001944 -0.003828 -0.001260 -0.001314 0.001331 -0.002216 -0.004621 0.004502 0.003717 -0.002469 0.003707 -0.000531 -0.001505 0.003069 -0.001744 -0.002508 0.001447 0.004554 -0.003943 0.004978 0.000855 0.004642 -0.003359 0.000833 -0.002502 -0.001509 0.002040 -0.003537 0.004660 0.003755 -0.003216 -0.004225 -0.001880 
value 0.000591 -0.002095 -0.004825 -0.003840 0.001656 0.004935 0.003570 -0.000439 0.002106 -0.000097 0.002364 0.001605 -0.000403 -0.002657 -0.004535 -0.001927 0.004285 0.004285 -0.000721 -0.002754 -0.001173 0.000259 0.002713 -0.000094 -0.001622 -0.002702 -0.002829 -0.000668 0.000596 -0.000067 -0.003438 0.001308 -0.004365 -0.004805 -0.002710 0.004114 -0.003846 0.002615 -0.001738 -0.001469 -0.002693 0.004225 0.000885 -0.002159 -0.003250 0.004555 -0.000936 -0.002176 0.004642 0.000637 -0.000794 -0.003237 0.003636 0.002002 0.000218 -0.004562 -0.001109 0.000682 0.003504 -0.002870 -0.001938 0.001208 0.002973 -0.002378 0.001304 0.000610 -0.004971 -0.004807 0.001276 -0.001579 -0.001421 0.000626 0.003132 -0.003329 -0.004970 -0.002799 0.004529 -0.000108 -0.001712 0.000700 -0.004377 -0.004885 0.004758 -0.000596 -0.000929 0.001871 0.003347 0.004095 0.000029 0.002191 -0.004538 -0.001947 -0.003848 0.000607 -0.004991 -0.002940 -0.002402 0.004150 -0.001607 -0.000603 
p -0.002977 0.002352 0.004522 -0.004155 -0.000418 -0.002758 0.004801 -0.000314 0.002932 0.003354 0.003136 -0.003299 -0.002770 -0.002283 -0.004065 -0.004829 -0.004869 -0.000136 0.002102 -0.004123 0.001791 0.001825 0.003045 0.002101 0.004868 -0.001868 0.002670 -0.000376 0.004517 -0.004185 -0.002617 -0.003274 0.003395 0.004407 -0.003911 0.004190 -0.003343 -0.004061 0.000196 -0.004703 0.001960 0.004941 0.003610 -0.004173 -0.000539 -0.001555 0.002737 0.004063 0.001815 -0.004018 -0.003518 0.000784 0.004179 -0.000416 -0.003747 -0.000726 0.004209 0.003781 -0.004044 -0.004688 0.002061 -0.004395 0.001997 -0.002820 0.000392 0.004588 0.003282 -0.004340 0.004357 0.002760 0.001217 0.004032 0.001614 0.004653 -0.000291 -0.001922 0.002318 -0.002703 -0.004837 -0.003921 -0.000875 0.000225 -0.003513 -0.001183 -0.002808 -0.004533 -0.004914 -0.000428 0.004175 -0.002445 0.004867 0.004126 0.000230 0.003520 0.002236 0.000759 -0.001986 0.002894 -0.003901 0.000255 
how 0.002682 -0.002294 -0.002138 -0.004108 0.001892 0.002489 0.001432 0.003454 -0.004201 0.004275 0.003215 0.001221 -0.002941 0.002593 0.002117 -0.000026 0.000829 -0.000524 -0.000456 0.002995 0.004766 -0.000545 -0.000597 -0.003936 -0.000976 -0.000440 -0.001900 -0.002536 -0.003739 -0.000676 0.004541 -0.002026 0.001633 0.000777 0.000133 0.000878 0.002795 -0.001549 -0.001219 0.001955 -0.000095 -0.000623 -0.003108 -0.000513 -0.004381 0.003086 0.003372 0.004256 -0.004908 0.001610 -0.000373 -0.000458 -0.004019 -0.000521 -0.000435 0.001127 -0.001557 0.003725 -0.000410 -0.002707 -0.004867 0.003880 -0.001391 -0.001181 0.001208 0.001974 -0.001972 -0.001012 0.004324 0.002538 0.001754 0.003581 0.004637 0.002605 -0.003806 0.000879 0.004803 0.001705 0.000252 0.001663 -0.000020 0.001869 -0.004665 -0.000785 -0.002178 -0.002371 -0.004649 -0.000684 -0.001513 -0.003985 -0.003296 0.000247 0.004630 -0.003439 -0.001699 0.002789 0.001408 0.001295 0.001549 0.000224 
