5 100
6 -0.023546890845393825 -0.03972178267250801 0.024982518572681422 0.002451834782701114 0.018276322119194884 0.03958539144489272 -0.03707889268367455 -0.05427969122357699 -0.05525647182467169 0.013606372128786712 0.04378264583647251 0.004410375150498645 -0.026066899578616923 -0.012748611352310098 -0.023037445049026405 0.04706598359465214 0.032793256935888325 -0.0068842984659693626 0.03270647186657478 0.03416199782855231 -0.05552910339360222 0.031981563902106776 0.056290183425078105 -0.022258297170929867 0.006683519286713724 -0.024473410316518153 0.016211353782323544 0.02252167699093818 -0.014116473945564237 -0.01480379225766479 0.012494145001381123 0.016172459556526457 -0.05099408564575274 0.025474770412105937 -0.009712059956027901 0.028749708407397927 -0.00439840031823882 -0.03948930432570392 -0.009883567883536733 -0.035698282949883364 -0.009258473171563497 0.023341124909448212 0.006936557558846885 0.005413035380429235 0.0306494341649372 0.023935068784088923 0.004806416077089721 0.0235077593885041 -0.01961242144220862 -0.00016256158464941485 -0.051572729287476374 -0.002061795459353718 -0.027735457948312676 0.014358537560649988 -0.005559427442896212 0.002642422978734148 -0.00890566258899996 -0.012792162332234198 -0.01249367286900765 -0.04702344063091381 -0.010407489274853262 -0.03462539507268832 0.05430548226236012 -0.010180791420460647 -0.003708757106857053 0.007107106992846419 0.02993857060912354 0.008852188716289299 0.05015834600761019 0.022620358600698668 0.01045678295837394 -0.008086206760771316 -0.00391748586091502 -0.042053931649645854 0.017996855626075434 -0.0009814826691330507 -0.06551656587820115 -0.0032824175111178695 -0.019554902992114938 -0.055262560249659524 0.014980593824694896 0.05853539361650574 -0.03294505058498732 -0.020558950972968136 0.06153915459611293 0.06669017845957444 0.039331899409921 0.01070561468729685 0.09088707185382473 -0.055682226614063156 -0.03668173302591232 0.05981451157753452 0.0020924173937789327 0.028859561501905835 0.04388330770849154 0.026925530031740922 -0.008268048826219707 -0.018355834032890612 -0.037925960463953426 -0.0027081330531630024 
21 0.0013734003242391807 -0.04689557833167223 0.06826771237672521 0.0040850292318142375 0.006136362541180391 -0.010999792183821019 -0.00530507997251474 -0.03933823986444622 -0.02751996018565618 0.07022755828041297 0.022257936860506353 0.017492135263119754 0.006890376888287182 -0.008257306109254178 -0.0017970023748393243 0.03890691110864282 0.027410619591291135 -0.03602859284191464 0.03940477589002023 0.022803034552802835 -0.04460197930009319 0.024906198737713006 0.05232060358214837 -0.05291420570932902 0.03962335721231424 -0.04147628015623643 -0.004819287959701167 0.017763576470315456 -0.01817493518957725 0.005344112769055825 0.016659336608762926 0.0005466345402125556 -0.019369348582740014 -0.006487793761950272 0.0072500993658860145 -0.00018575314718943375 0.006174680296009263 -0.02754851636978296 -0.033117080995669734 -0.04141321463080553 0.0016173569628825555 0.023706015715232263 -0.04029876389182531 -0.009516425258838213 0.0009051007720140311 0.033215594062438375 -0.009101501666009426 -0.001127110285541186 -0.011695573708185783 0.0016630997523092307 0.00793539503445992 -0.03236529679539112 -0.021348408810221233 0.004352502095011564 0.014427943427402239 0.007478458778216289 0.03903206866592742 0.01143024257527521 -0.017691028934831803 -0.014966432549632513 -0.013039542247469608 -0.042121326608153487 0.03544639005110814 -0.018641292139028126 0.0389846399713021 0.04212890601931856 0.03248132054622357 -0.02680465868459298 0.03145243290525216 0.035855134175373955 -0.004994806274771691 -0.039582271515749966 -0.026550761209084436 -0.005754711184999905 0.028886924196894353 -0.015242301493596571 -0.0296770656409745 0.006754592404915737 0.005337608089813819 -0.03747953414343871 0.02300682125720554 0.037361791873207456 0.009311721903773454 -0.02046004029420706 0.046660038542289 0.04999239830156932 0.017431416161931477 0.0031596414458293183 0.01816991828382015 0.010226934661085789 -0.03744375423814815 0.03261697786645247 -0.003784158482001378 0.04463922358476199 0.046850545446460064 0.005312591458026033 -0.006150647883231823 0.0270513807136852 -0.016536905501897518 0.02197626233100891 
22 0.09535611793398857 -0.004191877320408821 -0.015210526646114886 -0.016017442103475332 0.027314730919897556 0.07773988135159016 -0.0652039679698646 -0.00675370916724205 -0.0840846486389637 -0.001970767043530941 0.11702812928706408 0.005109486170113087 -0.0864869216165971 0.03869771584868431 0.02545756846666336 0.017833287420216948 0.062174003571271896 -0.024910024978453293 0.005900762975215912 0.017236375395441428 0.061722612008452415 0.003961804788559675 0.07101033302024007 -0.02788623422384262 0.04218295821920037 -0.016385618597269058 -0.03778161248192191 -0.023825533455237746 -0.029862630181014538 0.022599665448069572 0.042143535683862865 -0.0042934417724609375 -0.006971555529162288 -0.0205518058501184 -0.05314846456167288 0.024070017505437136 0.057491086728987284 -0.03755317162722349 -0.041744898073375225 -0.04836486652493477 -0.04627906886162236 -0.0006804517470300198 -0.008488893508911133 0.02368248300626874 -0.009321853518486023 0.12473306525498629 0.057004984468221664 0.05267448630183935 -0.11966176424175501 0.01141432300209999 -0.10914418660104275 0.01683368138037622 -0.07585874432697892 0.03187463618814945 0.02240554802119732 -0.004601829685270786 -0.002014376223087311 -0.03579981066286564 -0.061623645946383476 -0.035879237577319145 -0.1128755733370781 -0.005097178276628256 -0.010713309980928898 -0.00010329484939575195 -0.0015574730932712555 -0.017281170934438705 0.011647194623947144 -0.004454990848898888 0.1097079049795866 0.04555556736886501 0.008768879808485508 0.0249710853677243 0.01356697827577591 0.03487115155439824 -0.02372585888952017 -0.021297043072991073 0.014210648834705353 -0.0242499690502882 0.020051440224051476 -0.06431179447099566 -0.012700586070423014 0.06712780427187681 -0.038238517474383116 -0.04234395315870643 -0.01263600867241621 0.07690462470054626 -0.01150205172598362 0.03078302089124918 0.06153078097850084 -0.04563450813293457 -0.06598234549164772 0.05992889776825905 0.004880091175436974 -0.025505317375063896 0.05374280456453562 0.02623660583049059 -0.059825267642736435 0.005403527873568237 -0.07022395730018616 -0.013350993860512972 
31 0.0030401870511317006 -0.031204682852452 0.018441587589525927 -0.02905128539229433 0.014779126485033581 0.013461764940681556 -0.013241643512931963 -0.022247703480388736 -0.0224287529126741 0.05831279004147897 0.030027418707807858 0.027466105653729755 -0.056490918306129366 0.0007710368372499943 -0.03906936457497068 0.014681829115337072 0.03975747114357849 0.030595848817029037 0.018520872302663822 0.008419998070166912 -0.012090579184587114 0.01116180270522212 0.05177504540188238 -0.02008078963748024 0.038100443120735385 -0.03491399208238969 -0.019773175112883717 0.020589333897684508 0.0011878331812719505 -0.010485203868787115 0.006868511127928893 0.02076058986009836 -0.05173357190021003 0.0069067580431389315 -0.017852684613899328 0.03784439716643343 -0.005065950625673092 0.011425212025642395 0.0069139374342436595 -0.05189468073270594 -0.018690915157397587 0.056936770755176745 -0.021947232967553038 -0.0006537224786976973 -0.003961364486409972 0.05984005145728588 -0.005335624834212164 0.006659948853969884 0.02744488410341243 0.006856014583415042 -0.011684058234095573 -0.003635580593254417 0.022021282891122002 0.02424849117718016 -0.019021754982532002 -0.004694226896390319 0.025573062395172503 0.041024977108463645 -0.031848408262400575 -0.07042476381563272 -0.022899192990735173 -0.02279760754512002 0.01800298456995127 -0.042143456138243586 -0.0014174232492223382 0.04701622518283936 0.0173894838274767 -0.056166362580067165 0.0487038508678476 0.04278352455003187 0.0038712293996165195 0.017041316935016464 0.012257868346447745 -0.00713609739432286 -0.03545171133009717 -0.029763058157792937 -0.019829716902070988 -0.009450823121975796 -0.0448521557652081 -0.03793368593323976 -0.022637263165961485 0.015166926333525529 0.005931985758555432 -0.01980469305999577 0.02424524208375563 0.03766526960923026 0.005901980786196266 0.007721564771297078 0.06309434062131913 0.007710880522305767 -0.014643591411489373 0.05592826476398235 -0.038380773446988314 0.016452227369882166 -0.0022493209689855576 0.01698797711287625 -0.03214719980799904 0.0363285811811996 -0.055407609712953367 0.011453920529068759 
36 -0.0340690273984239 -0.03574270780744224 0.03015109381220978 0.008834210898855636 0.043780831042034875 0.00440385314668047 -0.04130458497795565 -0.02521101207520556 -0.055499252477853464 0.06064790281756171 0.028140923201010144 0.014049878741357604 -0.016625747594436437 -0.006968271822251123 -0.015864175808583868 0.05260637904324665 0.03635500037464602 0.025563897930310463 0.060769461223791385 0.05129597833026843 -0.025796601147358787 0.03120476341453092 0.06044296583096529 -0.011632168408611724 0.042648587118962716 -0.010954114608466625 -0.000607300842791025 -0.004160874409817866 0.0053898852061608745 0.017735210102822245 0.012616359998054546 0.0064112761144221216 -0.03630079791463654 0.015999379632031095 -0.03354381119174048 -0.02603385417625822 0.023475108874945676 0.004555008534727426 -0.0190576087554981 -0.025256596858902223 -0.028746135725543416 0.011258196535295454 -0.019268959503749322 0.0005446295414505334 0.06080892945414987 0.0016065167969670788 0.011403603800411883 -0.025668022134501874 0.019110736405027324 -0.006233718631596401 -0.03484938550612022 0.0041628560886300845 -0.019186083484312583 0.012249795077689763 -0.012359503985800106 -0.01367236262765424 0.053631392640768195 -0.008325745704872855 -0.0004954688925424527 -0.019509629860263448 0.018465813698953594 -0.022587260038688266 -0.000241067533477627 0.015161136687123057 -0.0037848503039828664 -0.005480376096313883 0.05845202094522016 -0.004506677902978042 0.07956183470528701 0.05739136651993312 0.0063868417436706605 -0.018301296465355773 0.0375500717039766 -0.008934844863311997 -0.004518220714967826 -0.028285766967797075 -0.07214923148396714 0.03578306940095178 -0.026876635721017575 -0.03600718736134727 0.016742547652844726 0.04044225253164768 -0.009823776974246419 0.006393547201978749 0.05562919911382527 0.09292357235119261 0.029669594774343843 -0.017932792868593644 0.051857877265790414 0.005676217184498392 -0.006250074189477439 0.02424979487690946 -0.029881613907115214 0.003617821068599306 0.06487282230679331 0.013275662123964265 -0.0010704773895699403 0.012941551699849039 -0.055851441519013764 -0.004047701456423463 